digraph Tree {
node [shape=box] ;
0 [label="X[3] <= 5.0\nentropy = 0.9957\nsamples = 13\nvalue = [7, 6]"] ;
1 [label="entropy = 0.0\nsamples = 2\nvalue = [2, 0]"] ;
0 -> 1 [labeldistance=2.5, labelangle=45, headlabel="True"] ;
2 [label="X[3] <= 9.5\nentropy = 0.994\nsamples = 11\nvalue = [5, 6]"] ;
0 -> 2 [labeldistance=2.5, labelangle=-45, headlabel="False"] ;
3 [label="X[0] <= 2.5\nentropy = 0.65\nsamples = 6\nvalue = [1, 5]"] ;
2 -> 3 ;
4 [label="X[5] <= 12.5\nentropy = 1.0\nsamples = 2\nvalue = [1, 1]"] ;
3 -> 4 ;
5 [label="entropy = 0.0\nsamples = 1\nvalue = [0, 1]"] ;
4 -> 5 ;
6 [label="entropy = 0.0\nsamples = 1\nvalue = [1, 0]"] ;
4 -> 6 ;
7 [label="entropy = 0.0\nsamples = 4\nvalue = [0, 4]"] ;
3 -> 7 ;
8 [label="X[5] <= 12.5\nentropy = 0.7219\nsamples = 5\nvalue = [4, 1]"] ;
2 -> 8 ;
9 [label="entropy = 0.0\nsamples = 4\nvalue = [4, 0]"] ;
8 -> 9 ;
10 [label="entropy = 0.0\nsamples = 1\nvalue = [0, 1]"] ;
8 -> 10 ;
}